digraph Tree {
node [shape=box, style="filled, rounded", color="black", fontname=helvetica] ;
edge [fontname=helvetica] ;
0 [label="X2 <= -0.045\ngini = 0.452\nsamples = 877\nvalue = [575, 302]\nclass = 0", fillcolor="#f3c3a1"] ;
1 [label="X1 <= -0.497\ngini = 0.409\nsamples = 415\nvalue = [119, 296]\nclass = 1", fillcolor="#89c4ef"] ;
0 -> 1 [labeldistance=2.5, labelangle=45, headlabel="True"] ;
2 [label="gini = 0.0\nsamples = 113\nvalue = [113, 0]\nclass = 0", fillcolor="#e58139"] ;
1 -> 2 ;
3 [label="gini = 0.039\nsamples = 302\nvalue = [6, 296]\nclass = 1", fillcolor="#3d9fe6"] ;
1 -> 3 ;
4 [label="X1 <= 2.034\ngini = 0.026\nsamples = 462\nvalue = [456, 6]\nclass = 0", fillcolor="#e5833c"] ;
0 -> 4 [labeldistance=2.5, labelangle=-45, headlabel="False"] ;
5 [label="gini = 0.013\nsamples = 459\nvalue = [456, 3]\nclass = 0", fillcolor="#e5823a"] ;
4 -> 5 ;
6 [label="gini = 0.0\nsamples = 3\nvalue = [0, 3]\nclass = 1", fillcolor="#399de5"] ;
4 -> 6 ;
}